0.200095,
-0.0925574,
0.0770734,
0.138133,
0.0493645,
-0.206202,
-0.166107,
0.244563,
0.0971814,
0.405135,
0.362226,
0.381749,
-0.366739,
0.0085103,
-0.335602,
-0.0164972,
-0.0809236,
-0.00556838,
0.319685,
0.0771879,
0.313168,
0.468176,
-0.205122,
-0.176221,
-0.210851,
0.10469,
-0.449934,
-0.0388854,
-0.476054,
0.375689,
-0.00237431,
-0.0768653,
-0.474778,
0.163479,
-0.528433,
0.35994,
0.132732,
-0.0461712,
0.196147,
-0.433305,
0.253684,
-0.485731,
0.483953,
0.0898016,
-0.559534,
-0.154244,
-0.194767,
-0.413579,
0.350572,
0.167194,
-0.181543,
0.142062,
0.218157,
-0.135301,
0.461886,
0.00612626,
0.302656,
0.272923,
-0.145065,
0.49313,
-0.289391,
0.411937,
-0.0146984,
-0.164749,
0.00494611,
0.25049,
0.373914,
0.469851,
-0.234383,
-0.399971,
0.101485,
-0.316387,
-0.101569,
-0.0811949,
0.0590869,
-0.527611,
0.308447,
0.215891,
0.444261,
0.0873957,
0.167764,
0.0265544,
0.448097,
0.240559,
-0.35995,
0.301254,
0.494282,
0.147043,
0.388341,
-0.41233,
0.181282,
-0.139942,
-0.112251,
0.10015,
0.232806,
-0.374387,
-0.293061,
0.326419,
-0.451854,
-0.202111,
