0.0549443,
0.303597,
-0.131396,
-0.37776,
0.325427,
-0.0918331,
-0.396693,
0.296459,
-0.0304904,
0.0184734,
0.433345,
-0.0589748,
-0.205206,
0.153441,
0.0780098,
-0.0112677,
0.12741,
-0.336854,
0.429529,
-0.250808,
-0.214952,
-0.33239,
-0.197118,
0.465661,
0.0165843,
-0.293481,
0.416257,
0.127189,
0.431187,
-0.255394,
0.419822,
-0.212897,
-0.241772,
0.00922961,
-0.414518,
0.103632,
0.19822,
-0.105789,
0.27119,
0.17049,
-0.227661,
-0.153238,
-0.0723571,
0.229754,
0.354767,
0.338248,
0.0919774,
-0.379749,
0.080555,
-0.118859,
0.253045,
-0.215443,
-0.309623,
-0.000666953,
-0.00454232,
-0.26684,
0.363369,
-0.288074,
-0.294345,
-0.138506,
-0.187383,
0.490299,
0.297695,
-0.0608573,
0.47752,
-0.263697,
0.266345,
-0.422964,
0.0835564,
0.429294,
0.412196,
-0.024426,
-0.0880024,
0.178748,
-0.40391,
-0.247908,
0.161761,
-0.2099,
0.107259,
0.376809,
-0.390488,
0.35601,
-0.392506,
0.277878,
-0.00797876,
-0.176077,
-0.281614,
0.408964,
0.261524,
0.184456,
0.170415,
-0.180517,
-0.273077,
0.391526,
0.0497368,
-0.182573,
-0.175579,
-0.155288,
0.0749121,
-0.425106,
